digraph Tree {
node [shape=box, style="filled", color="black", fontname="helvetica"] ;
edge [fontname="helvetica"] ;
0 [label="SexCode <= 0.5\ngini = 0.457\nsamples = 178\nvalue = [115.0, 63.0]\nclass = SexCode", fillcolor="#f3c6a5"] ;
1 [label="Pclass <= 2.5\ngini = 0.4\nsamples = 58\nvalue = [16, 42]\nclass = Pclass", fillcolor="#84c2ef"] ;
0 -> 1 [labeldistance=2.5, labelangle=45, headlabel="True"] ;
2 [label="gini = 0.0\nsamples = 25\nvalue = [0, 25]\nclass = Pclass", fillcolor="#399de5"] ;
1 -> 2 ;
3 [label="Age <= 14.5\ngini = 0.5\nsamples = 33\nvalue = [16, 17]\nclass = Pclass", fillcolor="#f3f9fd"] ;
1 -> 3 ;
4 [label="Age <= 5.5\ngini = 0.469\nsamples = 16\nvalue = [10, 6]\nclass = SexCode", fillcolor="#f5cdb0"] ;
3 -> 4 ;
5 [label="gini = 0.0\nsamples = 1\nvalue = [0, 1]\nclass = Pclass", fillcolor="#399de5"] ;
4 -> 5 ;
6 [label="Age <= inf\ngini = 0.444\nsamples = 15\nvalue = [10, 5]\nclass = SexCode", fillcolor="#f2c09c"] ;
4 -> 6 ;
7 [label="gini = 0.0\nsamples = 2\nvalue = [2, 0]\nclass = SexCode", fillcolor="#e58139"] ;
6 -> 7 ;
8 [label="gini = 0.473\nsamples = 13\nvalue = [8, 5]\nclass = SexCode", fillcolor="#f5d0b5"] ;
6 -> 8 ;
9 [label="Age <= 37.5\ngini = 0.457\nsamples = 17\nvalue = [6, 11]\nclass = Pclass", fillcolor="#a5d2f3"] ;
3 -> 9 ;
10 [label="Age <= 17.5\ngini = 0.43\nsamples = 16\nvalue = [5, 11]\nclass = Pclass", fillcolor="#93caf1"] ;
9 -> 10 ;
11 [label="gini = 0.0\nsamples = 2\nvalue = [0, 2]\nclass = Pclass", fillcolor="#399de5"] ;
10 -> 11 ;
12 [label="Age <= 18.5\ngini = 0.459\nsamples = 14\nvalue = [5, 9]\nclass = Pclass", fillcolor="#a7d3f3"] ;
10 -> 12 ;
13 [label="gini = 0.48\nsamples = 5\nvalue = [3, 2]\nclass = SexCode", fillcolor="#f6d5bd"] ;
12 -> 13 ;
14 [label="Age <= 20.5\ngini = 0.346\nsamples = 9\nvalue = [2, 7]\nclass = Pclass", fillcolor="#72b9ec"] ;
12 -> 14 ;
15 [label="gini = 0.0\nsamples = 1\nvalue = [0, 1]\nclass = Pclass", fillcolor="#399de5"] ;
14 -> 15 ;
16 [label="Age <= 28.0\ngini = 0.375\nsamples = 8\nvalue = [2, 6]\nclass = Pclass", fillcolor="#7bbeee"] ;
14 -> 16 ;
17 [label="Age <= 25.0\ngini = 0.408\nsamples = 7\nvalue = [2, 5]\nclass = Pclass", fillcolor="#88c4ef"] ;
16 -> 17 ;
18 [label="Age <= 22.5\ngini = 0.32\nsamples = 5\nvalue = [1, 4]\nclass = Pclass", fillcolor="#6ab6ec"] ;
17 -> 18 ;
19 [label="gini = 0.444\nsamples = 3\nvalue = [1, 2]\nclass = Pclass", fillcolor="#9ccef2"] ;
18 -> 19 ;
20 [label="gini = 0.0\nsamples = 2\nvalue = [0, 2]\nclass = Pclass", fillcolor="#399de5"] ;
18 -> 20 ;
21 [label="gini = 0.5\nsamples = 2\nvalue = [1, 1]\nclass = SexCode", fillcolor="#ffffff"] ;
17 -> 21 ;
22 [label="gini = 0.0\nsamples = 1\nvalue = [0, 1]\nclass = Pclass", fillcolor="#399de5"] ;
16 -> 22 ;
23 [label="gini = 0.0\nsamples = 1\nvalue = [1, 0]\nclass = SexCode", fillcolor="#e58139"] ;
9 -> 23 ;
24 [label="Pclass <= 1.5\ngini = 0.289\nsamples = 120\nvalue = [99, 21]\nclass = SexCode", fillcolor="#eb9c63"] ;
0 -> 24 [labeldistance=2.5, labelangle=-45, headlabel="False"] ;
25 [label="Age <= 58.0\ngini = 0.444\nsamples = 27\nvalue = [18, 9]\nclass = SexCode", fillcolor="#f2c09c"] ;
24 -> 25 ;
26 [label="Age <= 32.5\ngini = 0.488\nsamples = 19\nvalue = [11, 8]\nclass = SexCode", fillcolor="#f8ddc9"] ;
25 -> 26 ;
27 [label="Age <= 16.0\ngini = 0.278\nsamples = 6\nvalue = [5, 1]\nclass = SexCode", fillcolor="#ea9a61"] ;
26 -> 27 ;
28 [label="gini = 0.0\nsamples = 1\nvalue = [0, 1]\nclass = Pclass", fillcolor="#399de5"] ;
27 -> 28 ;
29 [label="gini = 0.0\nsamples = 5\nvalue = [5, 0]\nclass = SexCode", fillcolor="#e58139"] ;
27 -> 29 ;
30 [label="Age <= 36.5\ngini = 0.497\nsamples = 13\nvalue = [6, 7]\nclass = Pclass", fillcolor="#e3f1fb"] ;
26 -> 30 ;
31 [label="gini = 0.0\nsamples = 3\nvalue = [0, 3]\nclass = Pclass", fillcolor="#399de5"] ;
30 -> 31 ;
32 [label="Age <= 46.5\ngini = 0.48\nsamples = 10\nvalue = [6, 4]\nclass = SexCode", fillcolor="#f6d5bd"] ;
30 -> 32 ;
33 [label="Age <= 41.0\ngini = 0.278\nsamples = 6\nvalue = [5, 1]\nclass = SexCode", fillcolor="#ea9a61"] ;
32 -> 33 ;
34 [label="gini = 0.0\nsamples = 3\nvalue = [3, 0]\nclass = SexCode", fillcolor="#e58139"] ;
33 -> 34 ;
35 [label="Age <= 43.0\ngini = 0.444\nsamples = 3\nvalue = [2, 1]\nclass = SexCode", fillcolor="#f2c09c"] ;
33 -> 35 ;
36 [label="gini = 0.0\nsamples = 1\nvalue = [0, 1]\nclass = Pclass", fillcolor="#399de5"] ;
35 -> 36 ;
37 [label="gini = 0.0\nsamples = 2\nvalue = [2, 0]\nclass = SexCode", fillcolor="#e58139"] ;
35 -> 37 ;
38 [label="Age <= 50.0\ngini = 0.375\nsamples = 4\nvalue = [1, 3]\nclass = Pclass", fillcolor="#7bbeee"] ;
32 -> 38 ;
39 [label="gini = 0.0\nsamples = 2\nvalue = [0, 2]\nclass = Pclass", fillcolor="#399de5"] ;
38 -> 39 ;
40 [label="Age <= 54.0\ngini = 0.5\nsamples = 2\nvalue = [1, 1]\nclass = SexCode", fillcolor="#ffffff"] ;
38 -> 40 ;
41 [label="gini = 0.0\nsamples = 1\nvalue = [1, 0]\nclass = SexCode", fillcolor="#e58139"] ;
40 -> 41 ;
42 [label="gini = 0.0\nsamples = 1\nvalue = [0, 1]\nclass = Pclass", fillcolor="#399de5"] ;
40 -> 42 ;
43 [label="Age <= inf\ngini = 0.219\nsamples = 8\nvalue = [7, 1]\nclass = SexCode", fillcolor="#e99355"] ;
25 -> 43 ;
44 [label="gini = 0.0\nsamples = 3\nvalue = [3, 0]\nclass = SexCode", fillcolor="#e58139"] ;
43 -> 44 ;
45 [label="gini = 0.32\nsamples = 5\nvalue = [4, 1]\nclass = SexCode", fillcolor="#eca06a"] ;
43 -> 45 ;
46 [label="Age <= 21.0\ngini = 0.225\nsamples = 93\nvalue = [81, 12]\nclass = SexCode", fillcolor="#e99456"] ;
24 -> 46 ;
47 [label="Age <= 2.5\ngini = 0.388\nsamples = 19\nvalue = [14, 5]\nclass = SexCode", fillcolor="#eeae80"] ;
46 -> 47 ;
48 [label="gini = 0.0\nsamples = 3\nvalue = [3, 0]\nclass = SexCode", fillcolor="#e58139"] ;
47 -> 48 ;
49 [label="Age <= 3.5\ngini = 0.43\nsamples = 16\nvalue = [11, 5]\nclass = SexCode", fillcolor="#f1ba93"] ;
47 -> 49 ;
50 [label="gini = 0.0\nsamples = 1\nvalue = [0, 1]\nclass = Pclass", fillcolor="#399de5"] ;
49 -> 50 ;
51 [label="Age <= 18.5\ngini = 0.391\nsamples = 15\nvalue = [11, 4]\nclass = SexCode", fillcolor="#eeaf81"] ;
49 -> 51 ;
52 [label="Age <= 17.0\ngini = 0.245\nsamples = 7\nvalue = [6, 1]\nclass = SexCode", fillcolor="#e9965a"] ;
51 -> 52 ;
53 [label="Age <= 10.0\ngini = 0.375\nsamples = 4\nvalue = [3, 1]\nclass = SexCode", fillcolor="#eeab7b"] ;
52 -> 53 ;
54 [label="gini = 0.0\nsamples = 1\nvalue = [1, 0]\nclass = SexCode", fillcolor="#e58139"] ;
53 -> 54 ;
55 [label="gini = 0.444\nsamples = 3\nvalue = [2, 1]\nclass = SexCode", fillcolor="#f2c09c"] ;
53 -> 55 ;
56 [label="gini = 0.0\nsamples = 3\nvalue = [3, 0]\nclass = SexCode", fillcolor="#e58139"] ;
52 -> 56 ;
57 [label="Age <= 19.5\ngini = 0.469\nsamples = 8\nvalue = [5, 3]\nclass = SexCode", fillcolor="#f5cdb0"] ;
51 -> 57 ;
58 [label="Pclass <= 2.5\ngini = 0.444\nsamples = 6\nvalue = [4, 2]\nclass = SexCode", fillcolor="#f2c09c"] ;
57 -> 58 ;
59 [label="gini = 0.444\nsamples = 3\nvalue = [2, 1]\nclass = SexCode", fillcolor="#f2c09c"] ;
58 -> 59 ;
60 [label="gini = 0.444\nsamples = 3\nvalue = [2, 1]\nclass = SexCode", fillcolor="#f2c09c"] ;
58 -> 60 ;
61 [label="gini = 0.5\nsamples = 2\nvalue = [1, 1]\nclass = SexCode", fillcolor="#ffffff"] ;
57 -> 61 ;
62 [label="Age <= 29.5\ngini = 0.171\nsamples = 74\nvalue = [67, 7]\nclass = SexCode", fillcolor="#e88e4e"] ;
46 -> 62 ;
63 [label="gini = 0.0\nsamples = 21\nvalue = [21, 0]\nclass = SexCode", fillcolor="#e58139"] ;
62 -> 63 ;
64 [label="Age <= 32.25\ngini = 0.229\nsamples = 53\nvalue = [46, 7]\nclass = SexCode", fillcolor="#e99457"] ;
62 -> 64 ;
65 [label="Age <= 31.5\ngini = 0.48\nsamples = 5\nvalue = [3, 2]\nclass = SexCode", fillcolor="#f6d5bd"] ;
64 -> 65 ;
66 [label="Age <= 30.5\ngini = 0.375\nsamples = 4\nvalue = [3, 1]\nclass = SexCode", fillcolor="#eeab7b"] ;
65 -> 66 ;
67 [label="gini = 0.5\nsamples = 2\nvalue = [1, 1]\nclass = SexCode", fillcolor="#ffffff"] ;
66 -> 67 ;
68 [label="gini = 0.0\nsamples = 2\nvalue = [2, 0]\nclass = SexCode", fillcolor="#e58139"] ;
66 -> 68 ;
69 [label="gini = 0.0\nsamples = 1\nvalue = [0, 1]\nclass = Pclass", fillcolor="#399de5"] ;
65 -> 69 ;
70 [label="Age <= 43.5\ngini = 0.187\nsamples = 48\nvalue = [43, 5]\nclass = SexCode", fillcolor="#e89050"] ;
64 -> 70 ;
71 [label="gini = 0.0\nsamples = 13\nvalue = [13, 0]\nclass = SexCode", fillcolor="#e58139"] ;
70 -> 71 ;
72 [label="Age <= 47.0\ngini = 0.245\nsamples = 35\nvalue = [30, 5]\nclass = SexCode", fillcolor="#e9965a"] ;
70 -> 72 ;
73 [label="gini = 0.5\nsamples = 2\nvalue = [1, 1]\nclass = SexCode", fillcolor="#ffffff"] ;
72 -> 73 ;
74 [label="Age <= 60.5\ngini = 0.213\nsamples = 33\nvalue = [29, 4]\nclass = SexCode", fillcolor="#e99254"] ;
72 -> 74 ;
75 [label="gini = 0.0\nsamples = 9\nvalue = [9, 0]\nclass = SexCode", fillcolor="#e58139"] ;
74 -> 75 ;
76 [label="Age <= 63.5\ngini = 0.278\nsamples = 24\nvalue = [20, 4]\nclass = SexCode", fillcolor="#ea9a61"] ;
74 -> 76 ;
77 [label="gini = 0.0\nsamples = 1\nvalue = [0, 1]\nclass = Pclass", fillcolor="#399de5"] ;
76 -> 77 ;
78 [label="Pclass <= 2.5\ngini = 0.227\nsamples = 23\nvalue = [20, 3]\nclass = SexCode", fillcolor="#e99457"] ;
76 -> 78 ;
79 [label="gini = 0.444\nsamples = 3\nvalue = [2, 1]\nclass = SexCode", fillcolor="#f2c09c"] ;
78 -> 79 ;
80 [label="Age <= inf\ngini = 0.18\nsamples = 20\nvalue = [18, 2]\nclass = SexCode", fillcolor="#e88f4f"] ;
78 -> 80 ;
81 [label="gini = 0.0\nsamples = 2\nvalue = [2, 0]\nclass = SexCode", fillcolor="#e58139"] ;
80 -> 81 ;
82 [label="gini = 0.198\nsamples = 18\nvalue = [16, 2]\nclass = SexCode", fillcolor="#e89152"] ;
80 -> 82 ;
}